<?xml version="1.0"?>
<opencv_storage>
<stage3>
  <maxWeakCount>5</maxWeakCount>
  <stageThreshold>-1.4989453554153442e+00</stageThreshold>
  <weakClassifiers>
    <_>
      <internalNodes>
        0 -1 6249 5.3655784577131271e-03</internalNodes>
      <leafValues>
        -8.6379927396774292e-01 -1.2500000000000000e-01</leafValues></_>
    <_>
      <internalNodes>
        0 -1 7192 -2.9625648632645607e-02</internalNodes>
      <leafValues>
        5.8208847045898438e-01 -4.9152839183807373e-01</leafValues></_>
    <_>
      <internalNodes>
        0 -1 6439 5.2055601030588150e-02</internalNodes>
      <leafValues>
        -5.4702186584472656e-01 3.6328366398811340e-01</leafValues></_>
    <_>
      <internalNodes>
        0 -1 9100 1.2588892132043839e-02</internalNodes>
      <leafValues>
        -2.6633951067924500e-01 7.8338491916656494e-01</leafValues></_>
    <_>
      <internalNodes>
        0 -1 8952 6.9728223606944084e-03</internalNodes>
      <leafValues>
        -2.4056181311607361e-01 6.7094284296035767e-01</leafValues></_></weakClassifiers></stage3>
</opencv_storage>
