<?xml version="1.0"?>
<opencv_storage>
<stage5>
  <maxWeakCount>7</maxWeakCount>
  <stageThreshold>-1.4961009025573730e+00</stageThreshold>
  <weakClassifiers>
    <_>
      <internalNodes>
        0 -1 1736 -3.1178282573819160e-02</internalNodes>
      <leafValues>
        -3.5658913850784302e-01 -8.6554622650146484e-01</leafValues></_>
    <_>
      <internalNodes>
        0 -1 8053 5.4654604755342007e-03</internalNodes>
      <leafValues>
        -4.1986641287803650e-01 4.2082315683364868e-01</leafValues></_>
    <_>
      <internalNodes>
        0 -1 7963 -1.1536872945725918e-02</internalNodes>
      <leafValues>
        6.1665856838226318e-01 -2.5840559601783752e-01</leafValues></_>
    <_>
      <internalNodes>
        0 -1 3906 -3.5542487166821957e-03</internalNodes>
      <leafValues>
        4.7194218635559082e-01 -2.5797545909881592e-01</leafValues></_>
    <_>
      <internalNodes>
        0 -1 6261 4.7384928911924362e-03</internalNodes>
      <leafValues>
        -4.8103851079940796e-01 3.1968966126441956e-01</leafValues></_>
    <_>
      <internalNodes>
        0 -1 6072 3.9695440791547298e-03</internalNodes>
      <leafValues>
        -5.4082345962524414e-01 2.7071556448936462e-01</leafValues></_>
    <_>
      <internalNodes>
        0 -1 6126 -4.1344746947288513e-02</internalNodes>
      <leafValues>
        6.6587144136428833e-01 -2.0309098064899445e-01</leafValues></_></weakClassifiers></stage5>
</opencv_storage>
