<?xml version="1.0"?>
<opencv_storage>
<stage9>
  <maxWeakCount>6</maxWeakCount>
  <stageThreshold>-1.0720995664596558e+00</stageThreshold>
  <weakClassifiers>
    <_>
      <internalNodes>
        0 -1 8650 2.4582445621490479e-02</internalNodes>
      <leafValues>
        -7.7671450376510620e-01 -1.5887850522994995e-01</leafValues></_>
    <_>
      <internalNodes>
        0 -1 9025 -8.3155296742916107e-03</internalNodes>
      <leafValues>
        2.8978490829467773e-01 -4.3263688683509827e-01</leafValues></_>
    <_>
      <internalNodes>
        0 -1 9523 1.1512692086398602e-02</internalNodes>
      <leafValues>
        -3.9629447460174561e-01 3.2762977480888367e-01</leafValues></_>
    <_>
      <internalNodes>
        0 -1 3874 -6.5219640731811523e-02</internalNodes>
      <leafValues>
        3.6695501208305359e-01 -3.1505855917930603e-01</leafValues></_>
    <_>
      <internalNodes>
        0 -1 1824 3.4067082405090332e-01</internalNodes>
      <leafValues>
        1.2790364027023315e-01 -8.7303560972213745e-01</leafValues></_>
    <_>
      <internalNodes>
        0 -1 7728 2.1934702992439270e-01</internalNodes>
      <leafValues>
        1.0286518931388855e-01 -1.</leafValues></_></weakClassifiers></stage9>
</opencv_storage>
