<?xml version="1.0"?>
<opencv_storage>
<cascade>
  <stageType>BOOST</stageType>
  <featureType>HAAR</featureType>
  <height>12</height>
  <width>16</width>
  <stageParams>
    <boostType>GAB</boostType>
    <minHitRate>9.9000000953674316e-01</minHitRate>
    <maxFalseAlarm>5.0000000000000000e-01</maxFalseAlarm>
    <weightTrimRate>9.4999999999999996e-01</weightTrimRate>
    <maxDepth>1</maxDepth>
    <maxWeakCount>100</maxWeakCount></stageParams>
  <featureParams>
    <maxCatCount>0</maxCatCount>
    <featSize>1</featSize>
    <mode>ALL</mode></featureParams>
  <stageNum>19</stageNum>
  <stages>
    <!-- stage 0 -->
    <_>
      <maxWeakCount>5</maxWeakCount>
      <stageThreshold>-1.7668503522872925e+00</stageThreshold>
      <weakClassifiers>
        <_>
          <internalNodes>
            0 -1 44 -1.0720250010490417e-01</internalNodes>
          <leafValues>
            4.9714285135269165e-01 -8.4714746475219727e-01</leafValues></_>
        <_>
          <internalNodes>
            0 -1 55 1.1818774044513702e-02</internalNodes>
          <leafValues>
            -5.1928764581680298e-01 6.6499036550521851e-01</leafValues></_>
        <_>
          <internalNodes>
            0 -1 90 7.9510614275932312e-02</internalNodes>
          <leafValues>
            -4.7881516814231873e-01 5.6995850801467896e-01</leafValues></_>
        <_>
          <internalNodes>
            0 -1 133 4.1772909462451935e-02</internalNodes>
          <leafValues>
            3.8935554027557373e-01 -7.5621658563613892e-01</leafValues></_>
        <_>
          <internalNodes>
            0 -1 123 8.8151805102825165e-03</internalNodes>
          <leafValues>
            -3.4966152906417847e-01 6.4085209369659424e-01</leafValues></_></weakClassifiers></_>
    <!-- stage 1 -->
    <_>
      <maxWeakCount>7</maxWeakCount>
      <stageThreshold>-1.3547078371047974e+00</stageThreshold>
      <weakClassifiers>
        <_>
          <internalNodes>
            0 -1 101 -1.0815383866429329e-02</internalNodes>
          <leafValues>
            4.7368422150611877e-01 -7.1595329046249390e-01</leafValues></_>
        <_>
          <internalNodes>
            0 -1 163 4.5976280234754086e-03</internalNodes>
          <leafValues>
            -8.4351712465286255e-01 7.2736635804176331e-02</leafValues></_>
        <_>
          <internalNodes>
            0 -1 34 -2.7200907468795776e-01</internalNodes>
          <leafValues>
            7.3850113153457642e-01 -2.1531277894973755e-01</leafValues></_>
        <_>
          <internalNodes>
            0 -1 17 -3.8093298673629761e-02</internalNodes>
          <leafValues>
            3.3906003832817078e-01 -4.0874961018562317e-01</leafValues></_>
        <_>
          <internalNodes>
            0 -1 25 1.0317633301019669e-01</internalNodes>
          <leafValues>
            1.9744923710823059e-01 -7.1156305074691772e-01</leafValues></_>
        <_>
          <internalNodes>
            0 -1 153 -9.1838520020246506e-03</internalNodes>
          <leafValues>
            4.9621057510375977e-01 -2.6431551575660706e-01</leafValues></_>
        <_>
          <internalNodes>
            0 -1 134 -1.8535512685775757e-01</internalNodes>
          <leafValues>
            -1. 1.4064010977745056e-01</leafValues></_></weakClassifiers></_>
    <!-- stage 2 -->
    <_>
      <maxWeakCount>9</maxWeakCount>
      <stageThreshold>-1.2114173173904419e+00</stageThreshold>
      <weakClassifiers>
        <_>
          <internalNodes>
            0 -1 97 -3.9814658463001251e-02</internalNodes>
          <leafValues>
            1.4285714924335480e-01 -7.4688798189163208e-01</leafValues></_>
        <_>
          <internalNodes>
            0 -1 110 -1.1190757155418396e-02</internalNodes>
          <leafValues>
            1.4637190103530884e-01 -5.4809868335723877e-01</leafValues></_>
        <_>
          <internalNodes>
            0 -1 176 -3.5178321413695812e-03</internalNodes>
          <leafValues>
            5.9519898891448975e-01 -1.9549557566642761e-01</leafValues></_>
        <_>
          <internalNodes>
            0 -1 24 1.9341643201187253e-03</internalNodes>
          <leafValues>
            1.9579662382602692e-01 -5.3841364383697510e-01</leafValues></_>
        <_>
          <internalNodes>
            0 -1 175 -1.5217974781990051e-02</internalNodes>
          <leafValues>
            -6.8736916780471802e-01 1.5706321597099304e-01</leafValues></_>
        <_>
          <internalNodes>
            0 -1 183 -6.9676199927926064e-03</internalNodes>
          <leafValues>
            5.2028608322143555e-01 -1.9680601358413696e-01</leafValues></_>
        <_>
          <internalNodes>
            0 -1 151 -8.2770824432373047e-02</internalNodes>
          <leafValues>
            4.8770064115524292e-01 -1.9151236116886139e-01</leafValues></_>
        <_>
          <internalNodes>
            0 -1 102 -1.3057952746748924e-02</internalNodes>
          <leafValues>
            6.4694255590438843e-01 -1.6680915653705597e-01</leafValues></_>
        <_>
          <internalNodes>
            0 -1 7 -3.3196809235960245e-03</internalNodes>
          <leafValues>
            5.7904094457626343e-01 -1.5814077854156494e-01</leafValues></_></weakClassifiers></_>
    <!-- stage 3 -->
    <_>
      <maxWeakCount>8</maxWeakCount>
      <stageThreshold>-1.1185537576675415e+00</stageThreshold>
      <weakClassifiers>
        <_>
          <internalNodes>
            0 -1 184 -6.4495922997593880e-03</internalNodes>
          <leafValues>
            1.6853933036327362e-01 -7.0443350076675415e-01</leafValues></_>
        <_>
          <internalNodes>
            0 -1 117 -7.4634663760662079e-03</internalNodes>
          <leafValues>
            5.9531819820404053e-01 -2.8254938125610352e-01</leafValues></_>
        <_>
          <internalNodes>
            0 -1 143 8.2503734156489372e-03</internalNodes>
          <leafValues>
            -1.1199486255645752e-01 8.0450546741485596e-01</leafValues></_>
        <_>
          <internalNodes>
            0 -1 159 -1.0805975645780563e-02</internalNodes>
          <leafValues>
            -7.0302742719650269e-01 1.4608475565910339e-01</leafValues></_>
        <_>
          <internalNodes>
            0 -1 149 -4.6927463263273239e-02</internalNodes>
          <leafValues>
            -7.7025419473648071e-01 1.4578403532505035e-01</leafValues></_>
        <_>
          <internalNodes>
            0 -1 81 6.4166218042373657e-02</internalNodes>
          <leafValues>
            -1.4287927746772766e-01 8.5694473981857300e-01</leafValues></_>
        <_>
          <internalNodes>
            0 -1 179 4.5507308095693588e-03</internalNodes>
          <leafValues>
            -2.7787163853645325e-01 3.4570166468620300e-01</leafValues></_>
        <_>
          <internalNodes>
            0 -1 29 4.3831676244735718e-02</internalNodes>
          <leafValues>
            1.0930614918470383e-01 -7.6731336116790771e-01</leafValues></_></weakClassifiers></_>
    <!-- stage 4 -->
    <_>
      <maxWeakCount>12</maxWeakCount>
      <stageThreshold>-1.6014375686645508e+00</stageThreshold>
      <weakClassifiers>
        <_>
          <internalNodes>
            0 -1 98 -2.3939572274684906e-02</internalNodes>
          <leafValues>
            6.0000002384185791e-01 -6.7446213960647583e-01</leafValues></_>
        <_>
          <internalNodes>
            0 -1 190 3.9622038602828979e-03</internalNodes>
          <leafValues>
            -3.4219664335250854e-01 3.3413389325141907e-01</leafValues></_>
        <_>
          <internalNodes>
            0 -1 26 2.0524956285953522e-02</internalNodes>
          <leafValues>
            1.8321983516216278e-01 -4.8638984560966492e-01</leafValues></_>
        <_>
          <internalNodes>
            0 -1 97 -3.6409441381692886e-02</internalNodes>
          <leafValues>
            4.5855069160461426e-01 -1.9997733831405640e-01</leafValues></_>
        <_>
          <internalNodes>
            0 -1 169 -1.1202297173440456e-03</internalNodes>
          <leafValues>
            -5.4744213819503784e-01 1.6460432112216949e-01</leafValues></_>
        <_>
          <internalNodes>
            0 -1 30 -1.1661954224109650e-01</internalNodes>
          <leafValues>
            -1. 1.2184397131204605e-01</leafValues></_>
        <_>
          <internalNodes>
            0 -1 56 7.7053857967257500e-03</internalNodes>
          <leafValues>
            -1.8374741077423096e-01 6.1628413200378418e-01</leafValues></_>
        <_>
          <internalNodes>
            0 -1 109 -9.5543451607227325e-04</internalNodes>
          <leafValues>
            -4.9765464663505554e-01 1.9128985702991486e-01</leafValues></_>
        <_>
          <internalNodes>
            0 -1 152 -8.9792683720588684e-03</internalNodes>
          <leafValues>
            7.2454094886779785e-01 -1.1917351186275482e-01</leafValues></_>
        <_>
          <internalNodes>
            0 -1 85 -1.4791507273912430e-02</internalNodes>
          <leafValues>
            5.2480703592300415e-01 -1.5993602573871613e-01</leafValues></_>
        <_>
          <internalNodes>
            0 -1 174 3.8973316550254822e-02</internalNodes>
          <leafValues>
            -4.6750462055206299e-01 2.0562267303466797e-01</leafValues></_>
        <_>
          <internalNodes>
            0 -1 142 2.0352385938167572e-02</internalNodes>
          <leafValues>
            -1.1539786309003830e-01 8.8624900579452515e-01</leafValues></_></weakClassifiers></_>
    <!-- stage 5 -->
    <_>
      <maxWeakCount>9</maxWeakCount>
      <stageThreshold>-1.1072648763656616e+00</stageThreshold>
      <weakClassifiers>
        <_>
          <internalNodes>
            0 -1 181 6.3854148611426353e-03</internalNodes>
          <leafValues>
            -6.9455254077911377e-01 1.8421052396297455e-01</leafValues></_>
        <_>
          <internalNodes>
            0 -1 88 -9.2807523906230927e-03</internalNodes>
          <leafValues>
            4.8350650072097778e-01 -2.6632726192474365e-01</leafValues></_>
        <_>
          <internalNodes>
            0 -1 43 -2.3778951168060303e-01</internalNodes>
          <leafValues>
            6.4081925153732300e-01 -1.2808127701282501e-01</leafValues></_>
        <_>
          <internalNodes>
            0 -1 161 2.1561919711530209e-03</internalNodes>
          <leafValues>
            2.0639646053314209e-01 -4.2004176974296570e-01</leafValues></_>
        <_>
          <internalNodes>
            0 -1 95 3.1260374933481216e-02</internalNodes>
          <leafValues>
            -7.3641806840896606e-01 1.1845231056213379e-01</leafValues></_>
        <_>
          <internalNodes>
            0 -1 23 1.8253366649150848e-01</internalNodes>
          <leafValues>
            1.2978830933570862e-01 -8.2578533887863159e-01</leafValues></_>
        <_>
          <internalNodes>
            0 -1 11 -1.1466423049569130e-02</internalNodes>
          <leafValues>
            3.0562144517898560e-01 -2.8617337346076965e-01</leafValues></_>
        <_>
          <internalNodes>
            0 -1 160 7.9266317188739777e-03</internalNodes>
          <leafValues>
            -1.9648779928684235e-01 5.2014172077178955e-01</leafValues></_>
        <_>
          <internalNodes>
            0 -1 3 -1.4345724880695343e-01</internalNodes>
          <leafValues>
            -9.3360316753387451e-01 1.2117430567741394e-01</leafValues></_></weakClassifiers></_>
    <!-- stage 6 -->
    <_>
      <maxWeakCount>9</maxWeakCount>
      <stageThreshold>-1.4262717962265015e+00</stageThreshold>
      <weakClassifiers>
        <_>
          <internalNodes>
            0 -1 71 1.6388708353042603e-01</internalNodes>
          <leafValues>
            -6.8672394752502441e-01 3.3333334326744080e-01</leafValues></_>
        <_>
          <internalNodes>
            0 -1 59 -2.5791700929403305e-02</internalNodes>
          <leafValues>
            3.0827260017395020e-01 -3.4237599372863770e-01</leafValues></_>
        <_>
          <internalNodes>
            0 -1 170 -1.3355551287531853e-02</internalNodes>
          <leafValues>
            -5.0012421607971191e-01 2.0314471423625946e-01</leafValues></_>
        <_>
          <internalNodes>
            0 -1 96 -3.8198232650756836e-03</internalNodes>
          <leafValues>
            4.3980798125267029e-01 -2.0580306649208069e-01</leafValues></_>
        <_>
          <internalNodes>
            0 -1 16 3.6368295550346375e-03</internalNodes>
          <leafValues>
            -2.6278272271156311e-01 3.1745702028274536e-01</leafValues></_>
        <_>
          <internalNodes>
            0 -1 139 1.2400119006633759e-01</internalNodes>
          <leafValues>
            1.3847737014293671e-01 -7.5479650497436523e-01</leafValues></_>
        <_>
          <internalNodes>
            0 -1 9 3.9632702246308327e-03</internalNodes>
          <leafValues>
            -2.5268825888633728e-01 3.3373785018920898e-01</leafValues></_>
        <_>
          <internalNodes>
            0 -1 48 5.9184003621339798e-03</internalNodes>
          <leafValues>
            1.3747926056385040e-01 -5.7281368970870972e-01</leafValues></_>
        <_>
          <internalNodes>
            0 -1 168 -4.6990169212222099e-03</internalNodes>
          <leafValues>
            5.9940373897552490e-01 -1.5499912202358246e-01</leafValues></_></weakClassifiers></_>
    <!-- stage 7 -->
    <_>
      <maxWeakCount>11</maxWeakCount>
      <stageThreshold>-1.3822162151336670e+00</stageThreshold>
      <weakClassifiers>
        <_>
          <internalNodes>
            0 -1 112 -1.7671423032879829e-02</internalNodes>
          <leafValues>
            3.8775509595870972e-01 -6.8151658773422241e-01</leafValues></_>
        <_>
          <internalNodes>
            0 -1 108 8.3290261682122946e-04</internalNodes>
          <leafValues>
            5.3714375942945480e-02 -6.0707455873489380e-01</leafValues></_>
        <_>
          <internalNodes>
            0 -1 184 -4.0514832362532616e-03</internalNodes>
          <leafValues>
            5.5766969919204712e-01 -1.8729303777217865e-01</leafValues></_>
        <_>
          <internalNodes>
            0 -1 20 -1.1009403970092535e-03</internalNodes>
          <leafValues>
            3.0051380395889282e-01 -2.6429578661918640e-01</leafValues></_>
        <_>
          <internalNodes>
            0 -1 49 3.8324158638715744e-02</internalNodes>
          <leafValues>
            1.6971147060394287e-01 -5.9201639890670776e-01</leafValues></_>
        <_>
          <internalNodes>
            0 -1 28 -2.2781974985264242e-04</internalNodes>
          <leafValues>
            2.6756000518798828e-01 -3.0030992627143860e-01</leafValues></_>
        <_>
          <internalNodes>
            0 -1 136 1.0982151329517365e-01</internalNodes>
          <leafValues>
            9.9214226007461548e-02 -8.5766547918319702e-01</leafValues></_>
        <_>
          <internalNodes>
            0 -1 183 -8.3565842360258102e-03</internalNodes>
          <leafValues>
            4.8189973831176758e-01 -1.9230920076370239e-01</leafValues></_>
        <_>
          <internalNodes>
            0 -1 122 -3.3648200333118439e-02</internalNodes>
          <leafValues>
            -6.1572229862213135e-01 1.4625881612300873e-01</leafValues></_>
        <_>
          <internalNodes>
            0 -1 138 2.1174930036067963e-02</internalNodes>
          <leafValues>
            -1.5367701649665833e-01 6.2213557958602905e-01</leafValues></_>
        <_>
          <internalNodes>
            0 -1 180 1.0134625248610973e-02</internalNodes>
          <leafValues>
            1.2214434891939163e-01 -6.1259365081787109e-01</leafValues></_></weakClassifiers></_>
    <!-- stage 8 -->
    <_>
      <maxWeakCount>12</maxWeakCount>
      <stageThreshold>-1.3054344654083252e+00</stageThreshold>
      <weakClassifiers>
        <_>
          <internalNodes>
            0 -1 177 -8.1360777840018272e-03</internalNodes>
          <leafValues>
            6.0240965336561203e-02 -6.9049948453903198e-01</leafValues></_>
        <_>
          <internalNodes>
            0 -1 130 6.7702666856348515e-03</internalNodes>
          <leafValues>
            -2.5565782189369202e-01 4.1197237372398376e-01</leafValues></_>
        <_>
          <internalNodes>
            0 -1 130 -4.7876471653580666e-03</internalNodes>
          <leafValues>
            5.3681004047393799e-01 -1.3802921772003174e-01</leafValues></_>
        <_>
          <internalNodes>
            0 -1 78 -2.1567526273429394e-03</internalNodes>
          <leafValues>
            -6.2981110811233521e-01 1.2117668241262436e-01</leafValues></_>
        <_>
          <internalNodes>
            0 -1 4 1.8347479403018951e-01</internalNodes>
          <leafValues>
            1.5441080927848816e-01 -6.3809669017791748e-01</leafValues></_>
        <_>
          <internalNodes>
            0 -1 38 -1.7821253836154938e-01</internalNodes>
          <leafValues>
            -4.9191930890083313e-01 1.2518964707851410e-01</leafValues></_>
        <_>
          <internalNodes>
            0 -1 132 2.6657145470380783e-02</internalNodes>
          <leafValues>
            3.0124126002192497e-02 -8.3335590362548828e-01</leafValues></_>
        <_>
          <internalNodes>
            0 -1 148 -8.5302125662565231e-03</internalNodes>
          <leafValues>
            -4.8558244109153748e-01 1.3401007652282715e-01</leafValues></_>
        <_>
          <internalNodes>
            0 -1 61 -1.4332154765725136e-02</internalNodes>
          <leafValues>
            4.7302570939064026e-01 -1.3550460338592529e-01</leafValues></_>
        <_>
          <internalNodes>
            0 -1 106 2.4034781381487846e-02</internalNodes>
          <leafValues>
            -1.0761325061321259e-01 5.6625497341156006e-01</leafValues></_>
        <_>
          <internalNodes>
            0 -1 77 1.3845002104062587e-04</internalNodes>
          <leafValues>
            -2.5015997886657715e-01 2.4804681539535522e-01</leafValues></_>
        <_>
          <internalNodes>
            0 -1 188 -9.2720594257116318e-03</internalNodes>
          <leafValues>
            -8.0137550830841064e-01 7.2391867637634277e-02</leafValues></_></weakClassifiers></_>
    <!-- stage 9 -->
    <_>
      <maxWeakCount>13</maxWeakCount>
      <stageThreshold>-1.3311573266983032e+00</stageThreshold>
      <weakClassifiers>
        <_>
          <internalNodes>
            0 -1 53 1.2755274772644043e-01</internalNodes>
          <leafValues>
            -6.5504586696624756e-01 1.</leafValues></_>
        <_>
          <internalNodes>
            0 -1 15 -1.6782225668430328e-01</internalNodes>
          <leafValues>
            4.2176082730293274e-01 -2.8212499618530273e-01</leafValues></_>
        <_>
          <internalNodes>
            0 -1 70 1.3096567243337631e-02</internalNodes>
          <leafValues>
            -2.7933400869369507e-01 2.7108728885650635e-01</leafValues></_>
        <_>
          <internalNodes>
            0 -1 41 -1.4647945761680603e-02</internalNodes>
          <leafValues>
            4.6292304992675781e-01 -1.4532598853111267e-01</leafValues></_>
        <_>
          <internalNodes>
            0 -1 167 -2.2963727824389935e-03</internalNodes>
          <leafValues>
            2.6635196805000305e-01 -2.4374759197235107e-01</leafValues></_>
        <_>
          <internalNodes>
            0 -1 67 -5.2749506721738726e-05</internalNodes>
          <leafValues>
            2.3787808418273926e-01 -2.5887379050254822e-01</leafValues></_>
        <_>
          <internalNodes>
            0 -1 92 2.6387743651866913e-02</internalNodes>
          <leafValues>
            1.1701909452676773e-01 -6.5609431266784668e-01</leafValues></_>
        <_>
          <internalNodes>
            0 -1 53 -5.4408542811870575e-02</internalNodes>
          <leafValues>
            4.8135519027709961e-01 -1.3272723555564880e-01</leafValues></_>
        <_>
          <internalNodes>
            0 -1 68 -2.4679636582732201e-02</internalNodes>
          <leafValues>
            -8.0351406335830688e-01 1.1310837417840958e-01</leafValues></_>
        <_>
          <internalNodes>
            0 -1 69 4.3390574865043163e-04</internalNodes>
          <leafValues>
            -2.5318080186843872e-01 2.6627042889595032e-01</leafValues></_>
        <_>
          <internalNodes>
            0 -1 75 -2.5707380846142769e-02</internalNodes>
          <leafValues>
            4.8542392253875732e-01 -1.6935200989246368e-01</leafValues></_>
        <_>
          <internalNodes>
            0 -1 104 2.5205090641975403e-02</internalNodes>
          <leafValues>
            -1.5358249843120575e-01 4.6920210123062134e-01</leafValues></_>
        <_>
          <internalNodes>
            0 -1 125 5.2447911351919174e-02</internalNodes>
          <leafValues>
            1.2309352308511734e-01 -6.5794783830642700e-01</leafValues></_></weakClassifiers></_>
    <!-- stage 10 -->
    <_>
      <maxWeakCount>13</maxWeakCount>
      <stageThreshold>-1.1878840923309326e+00</stageThreshold>
      <weakClassifiers>
        <_>
          <internalNodes>
            0 -1 157 -7.2847865521907806e-03</internalNodes>
          <leafValues>
            -3.7037037312984467e-02 -6.9879519939422607e-01</leafValues></_>
        <_>
          <internalNodes>
            0 -1 182 -6.4262505620718002e-03</internalNodes>
          <leafValues>
            3.3654150366783142e-01 -2.8279492259025574e-01</leafValues></_>
        <_>
          <internalNodes>
            0 -1 82 -2.8232669457793236e-02</internalNodes>
          <leafValues>
            5.9130251407623291e-01 -1.1252780258655548e-01</leafValues></_>
        <_>
          <internalNodes>
            0 -1 87 -1.7862552776932716e-02</internalNodes>
          <leafValues>
            4.0958917140960693e-01 -1.7182560265064240e-01</leafValues></_>
        <_>
          <internalNodes>
            0 -1 33 1.3286570087075233e-02</internalNodes>
          <leafValues>
            8.6752824485301971e-02 -7.2343260049819946e-01</leafValues></_>
        <_>
          <internalNodes>
            0 -1 27 2.3582489229738712e-03</internalNodes>
          <leafValues>
            -2.1485337615013123e-01 4.2229771614074707e-01</leafValues></_>
        <_>
          <internalNodes>
            0 -1 0 -5.2798409014940262e-03</internalNodes>
          <leafValues>
            -7.7705633640289307e-01 6.2110099941492081e-02</leafValues></_>
        <_>
          <internalNodes>
            0 -1 62 -3.3442497253417969e-02</internalNodes>
          <leafValues>
            7.2152823209762573e-01 -1.0333580523729324e-01</leafValues></_>
        <_>
          <internalNodes>
            0 -1 154 3.3846329897642136e-03</internalNodes>
          <leafValues>
            -1.1560606211423874e-01 4.6170094609260559e-01</leafValues></_>
        <_>
          <internalNodes>
            0 -1 10 2.6987954042851925e-03</internalNodes>
          <leafValues>
            -1.9264121353626251e-01 3.7316820025444031e-01</leafValues></_>
        <_>
          <internalNodes>
            0 -1 8 -7.4553610756993294e-03</internalNodes>
          <leafValues>
            4.2769575119018555e-01 -1.9237446784973145e-01</leafValues></_>
        <_>
          <internalNodes>
            0 -1 32 8.2741193473339081e-03</internalNodes>
          <leafValues>
            9.2736288905143738e-02 -6.6283744573593140e-01</leafValues></_>
        <_>
          <internalNodes>
            0 -1 105 -4.2337710037827492e-03</internalNodes>
          <leafValues>
            2.4689070880413055e-01 -2.4230718612670898e-01</leafValues></_></weakClassifiers></_>
    <!-- stage 11 -->
    <_>
      <maxWeakCount>14</maxWeakCount>
      <stageThreshold>-1.3936119079589844e+00</stageThreshold>
      <weakClassifiers>
        <_>
          <internalNodes>
            0 -1 19 -2.3537066578865051e-01</internalNodes>
          <leafValues>
            8.3333335816860199e-02 -6.8410855531692505e-01</leafValues></_>
        <_>
          <internalNodes>
            0 -1 57 3.7309274077415466e-02</internalNodes>
          <leafValues>
            -2.5164154171943665e-01 5.1566296815872192e-01</leafValues></_>
        <_>
          <internalNodes>
            0 -1 45 -6.3225284218788147e-02</internalNodes>
          <leafValues>
            4.1346630454063416e-01 -1.7518660426139832e-01</leafValues></_>
        <_>
          <internalNodes>
            0 -1 79 3.9681331254541874e-03</internalNodes>
          <leafValues>
            1.1907429248094559e-01 -6.8343532085418701e-01</leafValues></_>
        <_>
          <internalNodes>
            0 -1 94 3.4710690379142761e-03</internalNodes>
          <leafValues>
            -1.5243832767009735e-01 4.0160635113716125e-01</leafValues></_>
        <_>
          <internalNodes>
            0 -1 120 6.8566529080271721e-03</internalNodes>
          <leafValues>
            -1.2227327376604080e-01 5.5948388576507568e-01</leafValues></_>
        <_>
          <internalNodes>
            0 -1 39 -2.0564284175634384e-02</internalNodes>
          <leafValues>
            6.1940330266952515e-01 -1.2022528797388077e-01</leafValues></_>
        <_>
          <internalNodes>
            0 -1 22 1.1527091264724731e-03</internalNodes>
          <leafValues>
            1.4776948094367981e-01 -4.5167064666748047e-01</leafValues></_>
        <_>
          <internalNodes>
            0 -1 127 -1.5180291607975960e-02</internalNodes>
          <leafValues>
            1.5377576649188995e-01 -3.5214355587959290e-01</leafValues></_>
        <_>
          <internalNodes>
            0 -1 162 1.1258784681558609e-02</internalNodes>
          <leafValues>
            -2.0913963019847870e-01 3.2547220587730408e-01</leafValues></_>
        <_>
          <internalNodes>
            0 -1 129 -1.4838859438896179e-01</internalNodes>
          <leafValues>
            -7.4517208337783813e-01 1.3058802485466003e-01</leafValues></_>
        <_>
          <internalNodes>
            0 -1 111 -1.6500724479556084e-02</internalNodes>
          <leafValues>
            -7.7199316024780273e-01 4.7546695917844772e-02</leafValues></_>
        <_>
          <internalNodes>
            0 -1 58 1.8273130059242249e-02</internalNodes>
          <leafValues>
            -1.3971813023090363e-01 4.6776658296585083e-01</leafValues></_>
        <_>
          <internalNodes>
            0 -1 2 4.6810694038867950e-02</internalNodes>
          <leafValues>
            9.9167883396148682e-02 -6.7382043600082397e-01</leafValues></_></weakClassifiers></_>
    <!-- stage 12 -->
    <_>
      <maxWeakCount>15</maxWeakCount>
      <stageThreshold>-1.4970141649246216e+00</stageThreshold>
      <weakClassifiers>
        <_>
          <internalNodes>
            0 -1 115 5.6801587343215942e-02</internalNodes>
          <leafValues>
            -6.6236162185668945e-01 8.9999997615814209e-01</leafValues></_>
        <_>
          <internalNodes>
            0 -1 72 -3.4782625734806061e-02</internalNodes>
          <leafValues>
            1.1827963590621948e-01 -3.8066607713699341e-01</leafValues></_>
        <_>
          <internalNodes>
            0 -1 19 -2.2836089134216309e-01</internalNodes>
          <leafValues>
            6.2727105617523193e-01 -9.9998347461223602e-02</leafValues></_>
        <_>
          <internalNodes>
            0 -1 46 -9.8534241318702698e-02</internalNodes>
          <leafValues>
            3.9452651143074036e-01 -2.0788976550102234e-01</leafValues></_>
        <_>
          <internalNodes>
            0 -1 191 6.2406400684267282e-04</internalNodes>
          <leafValues>
            -2.3808933794498444e-01 2.9974925518035889e-01</leafValues></_>
        <_>
          <internalNodes>
            0 -1 64 1.5008673071861267e-02</internalNodes>
          <leafValues>
            1.2078983336687088e-01 -5.5998629331588745e-01</leafValues></_>
        <_>
          <internalNodes>
            0 -1 47 1.2934563681483269e-02</internalNodes>
          <leafValues>
            1.4106158912181854e-01 -6.1861717700958252e-01</leafValues></_>
        <_>
          <internalNodes>
            0 -1 128 -3.5315174609422684e-03</internalNodes>
          <leafValues>
            3.1572839617729187e-01 -2.1937438845634460e-01</leafValues></_>
        <_>
          <internalNodes>
            0 -1 118 -1.7986539751291275e-02</internalNodes>
          <leafValues>
            5.3638416528701782e-01 -1.1848896741867065e-01</leafValues></_>
        <_>
          <internalNodes>
            0 -1 63 -3.4292056225240231e-03</internalNodes>
          <leafValues>
            3.9164388179779053e-01 -1.7729455232620239e-01</leafValues></_>
        <_>
          <internalNodes>
            0 -1 109 9.8248431459069252e-04</internalNodes>
          <leafValues>
            1.6930970549583435e-01 -4.6231114864349365e-01</leafValues></_>
        <_>
          <internalNodes>
            0 -1 5 2.8644581325352192e-03</internalNodes>
          <leafValues>
            -2.3120985925197601e-01 3.0479067564010620e-01</leafValues></_>
        <_>
          <internalNodes>
            0 -1 178 -1.2837692629545927e-03</internalNodes>
          <leafValues>
            -5.7194745540618896e-01 1.1290417611598969e-01</leafValues></_>
        <_>
          <internalNodes>
            0 -1 187 6.3222637400031090e-03</internalNodes>
          <leafValues>
            -2.9358014464378357e-01 3.2062351703643799e-01</leafValues></_>
        <_>
          <internalNodes>
            0 -1 164 1.2448126822710037e-01</internalNodes>
          <leafValues>
            8.2444302737712860e-02 -8.0820792913436890e-01</leafValues></_></weakClassifiers></_>
    <!-- stage 13 -->
    <_>
      <maxWeakCount>11</maxWeakCount>
      <stageThreshold>-1.2920366525650024e+00</stageThreshold>
      <weakClassifiers>
        <_>
          <internalNodes>
            0 -1 115 6.0719035565853119e-02</internalNodes>
          <leafValues>
            -6.6051661968231201e-01 8.0000001192092896e-01</leafValues></_>
        <_>
          <internalNodes>
            0 -1 54 -9.0537354350090027e-02</internalNodes>
          <leafValues>
            3.0073991417884827e-01 -2.8210115432739258e-01</leafValues></_>
        <_>
          <internalNodes>
            0 -1 141 1.9258361309766769e-02</internalNodes>
          <leafValues>
            -3.3811563253402710e-01 2.7075889706611633e-01</leafValues></_>
        <_>
          <internalNodes>
            0 -1 173 1.3228437455836684e-04</internalNodes>
          <leafValues>
            -3.1880125403404236e-01 2.1854126453399658e-01</leafValues></_>
        <_>
          <internalNodes>
            0 -1 66 4.6413492411375046e-02</internalNodes>
          <leafValues>
            1.3177499175071716e-01 -7.4748551845550537e-01</leafValues></_>
        <_>
          <internalNodes>
            0 -1 52 1.3255467638373375e-03</internalNodes>
          <leafValues>
            -2.8743785619735718e-01 2.7436876296997070e-01</leafValues></_>
        <_>
          <internalNodes>
            0 -1 1 -1.2207247316837311e-02</internalNodes>
          <leafValues>
            -6.7958366870880127e-01 1.1629434674978256e-01</leafValues></_>
        <_>
          <internalNodes>
            0 -1 6 3.8540151435881853e-03</internalNodes>
          <leafValues>
            -1.9829931855201721e-01 3.9890784025192261e-01</leafValues></_>
        <_>
          <internalNodes>
            0 -1 65 -1.2143032625317574e-02</internalNodes>
          <leafValues>
            -8.9169859886169434e-01 8.9876249432563782e-02</leafValues></_>
        <_>
          <internalNodes>
            0 -1 76 -6.1545938253402710e-02</internalNodes>
          <leafValues>
            -9.4670683145523071e-01 4.6062320470809937e-02</leafValues></_>
        <_>
          <internalNodes>
            0 -1 51 -8.1199741363525391e-01</internalNodes>
          <leafValues>
            -8.5652613639831543e-01 3.4424055367708206e-02</leafValues></_></weakClassifiers></_>
    <!-- stage 14 -->
    <_>
      <maxWeakCount>15</maxWeakCount>
      <stageThreshold>-1.2766143083572388e+00</stageThreshold>
      <weakClassifiers>
        <_>
          <internalNodes>
            0 -1 50 -4.8049189150333405e-02</internalNodes>
          <leafValues>
            8.9999997615814209e-01 -6.6236162185668945e-01</leafValues></_>
        <_>
          <internalNodes>
            0 -1 35 -5.6607499718666077e-02</internalNodes>
          <leafValues>
            1.9221034646034241e-01 -3.2788237929344177e-01</leafValues></_>
        <_>
          <internalNodes>
            0 -1 190 1.9510037964209914e-03</internalNodes>
          <leafValues>
            -2.2425739467144012e-01 2.7373319864273071e-01</leafValues></_>
        <_>
          <internalNodes>
            0 -1 21 -1.8844649195671082e-02</internalNodes>
          <leafValues>
            -7.8961616754531860e-01 7.6853275299072266e-02</leafValues></_>
        <_>
          <internalNodes>
            0 -1 144 9.4520598649978638e-02</internalNodes>
          <leafValues>
            6.9063842296600342e-02 -1.</leafValues></_>
        <_>
          <internalNodes>
            0 -1 12 6.3741728663444519e-02</internalNodes>
          <leafValues>
            5.7687450200319290e-02 -1.</leafValues></_>
        <_>
          <internalNodes>
            0 -1 42 4.1487668640911579e-03</internalNodes>
          <leafValues>
            -2.0950953662395477e-01 3.8422173261642456e-01</leafValues></_>
        <_>
          <internalNodes>
            0 -1 143 4.5599006116390228e-03</internalNodes>
          <leafValues>
            -1.4519412815570831e-01 4.4464001059532166e-01</leafValues></_>
        <_>
          <internalNodes>
            0 -1 116 3.4689985215663910e-02</internalNodes>
          <leafValues>
            -1.3985945284366608e-01 4.4746410846710205e-01</leafValues></_>
        <_>
          <internalNodes>
            0 -1 156 4.7461196780204773e-02</internalNodes>
          <leafValues>
            1.1094508320093155e-01 -6.2212979793548584e-01</leafValues></_>
        <_>
          <internalNodes>
            0 -1 150 7.4838157743215561e-03</internalNodes>
          <leafValues>
            -1.9506108760833740e-01 4.2804580926895142e-01</leafValues></_>
        <_>
          <internalNodes>
            0 -1 97 -3.7859857082366943e-02</internalNodes>
          <leafValues>
            4.1774058341979980e-01 -1.8464826047420502e-01</leafValues></_>
        <_>
          <internalNodes>
            0 -1 185 3.2879787031561136e-03</internalNodes>
          <leafValues>
            -1.2574040889739990e-01 5.1594030857086182e-01</leafValues></_>
        <_>
          <internalNodes>
            0 -1 74 -4.2395353317260742e-02</internalNodes>
          <leafValues>
            2.8115648031234741e-01 -2.2867350280284882e-01</leafValues></_>
        <_>
          <internalNodes>
            0 -1 121 5.7443492114543915e-03</internalNodes>
          <leafValues>
            -1.7194439470767975e-01 3.6826047301292419e-01</leafValues></_></weakClassifiers></_>
    <!-- stage 15 -->
    <_>
      <maxWeakCount>15</maxWeakCount>
      <stageThreshold>-1.2717868089675903e+00</stageThreshold>
      <weakClassifiers>
        <_>
          <internalNodes>
            0 -1 99 -3.8494653999805450e-02</internalNodes>
          <leafValues>
            1. -6.7346936464309692e-01</leafValues></_>
        <_>
          <internalNodes>
            0 -1 179 4.4787600636482239e-03</internalNodes>
          <leafValues>
            -3.9120101928710938e-01 1.3559351861476898e-01</leafValues></_>
        <_>
          <internalNodes>
            0 -1 124 1.5635166317224503e-02</internalNodes>
          <leafValues>
            1.2387278676033020e-01 -5.6603443622589111e-01</leafValues></_>
        <_>
          <internalNodes>
            0 -1 171 1.5918986499309540e-01</internalNodes>
          <leafValues>
            1.2040217965841293e-01 -8.8734620809555054e-01</leafValues></_>
        <_>
          <internalNodes>
            0 -1 146 2.0881523378193378e-03</internalNodes>
          <leafValues>
            1.8283882737159729e-01 -3.7013813853263855e-01</leafValues></_>
        <_>
          <internalNodes>
            0 -1 91 -3.0837763100862503e-02</internalNodes>
          <leafValues>
            4.1603621840476990e-01 -2.0125940442085266e-01</leafValues></_>
        <_>
          <internalNodes>
            0 -1 189 2.0495473872870207e-03</internalNodes>
          <leafValues>
            -2.6015517115592957e-01 3.2605260610580444e-01</leafValues></_>
        <_>
          <internalNodes>
            0 -1 135 -1.1502007953822613e-02</internalNodes>
          <leafValues>
            9.8277193307876587e-01 -1.0078582912683487e-01</leafValues></_>
        <_>
          <internalNodes>
            0 -1 40 -1.0132184252142906e-02</internalNodes>
          <leafValues>
            4.3934711813926697e-01 -1.6446602344512939e-01</leafValues></_>
        <_>
          <internalNodes>
            0 -1 14 -3.2001973595470190e-03</internalNodes>
          <leafValues>
            3.8127735257148743e-01 -1.9358752667903900e-01</leafValues></_>
        <_>
          <internalNodes>
            0 -1 107 -3.6995023488998413e-02</internalNodes>
          <leafValues>
            8.2294458150863647e-01 -9.6419416368007660e-02</leafValues></_>
        <_>
          <internalNodes>
            0 -1 60 3.8765449076890945e-02</internalNodes>
          <leafValues>
            9.4168491661548615e-02 -1.</leafValues></_>
        <_>
          <internalNodes>
            0 -1 31 3.8720495998859406e-02</internalNodes>
          <leafValues>
            -1.6781572997570038e-01 5.2799171209335327e-01</leafValues></_>
        <_>
          <internalNodes>
            0 -1 86 -1.5970591455698013e-02</internalNodes>
          <leafValues>
            3.8961020112037659e-01 -1.9004049897193909e-01</leafValues></_>
        <_>
          <internalNodes>
            0 -1 126 -8.1703856587409973e-02</internalNodes>
          <leafValues>
            -6.0701376199722290e-01 1.3253468275070190e-01</leafValues></_></weakClassifiers></_>
    <!-- stage 16 -->
    <_>
      <maxWeakCount>11</maxWeakCount>
      <stageThreshold>-1.3635141849517822e+00</stageThreshold>
      <weakClassifiers>
        <_>
          <internalNodes>
            0 -1 100 -3.3291120082139969e-02</internalNodes>
          <leafValues>
            1. -6.9072163105010986e-01</leafValues></_>
        <_>
          <internalNodes>
            0 -1 80 -2.0148448646068573e-02</internalNodes>
          <leafValues>
            1.5400607883930206e-01 -4.5261737704277039e-01</leafValues></_>
        <_>
          <internalNodes>
            0 -1 18 1.0034397244453430e-01</internalNodes>
          <leafValues>
            -9.0550675988197327e-02 1.</leafValues></_>
        <_>
          <internalNodes>
            0 -1 83 -4.3048132210969925e-02</internalNodes>
          <leafValues>
            8.7142652273178101e-01 -6.8087935447692871e-02</leafValues></_>
        <_>
          <internalNodes>
            0 -1 172 -7.0802471600472927e-03</internalNodes>
          <leafValues>
            5.1198643445968628e-01 -1.4396610856056213e-01</leafValues></_>
        <_>
          <internalNodes>
            0 -1 13 -2.3972210474312305e-03</internalNodes>
          <leafValues>
            3.6914759874343872e-01 -2.4255917966365814e-01</leafValues></_>
        <_>
          <internalNodes>
            0 -1 84 -7.8839063644409180e-03</internalNodes>
          <leafValues>
            -6.4850139617919922e-01 1.4916393160820007e-01</leafValues></_>
        <_>
          <internalNodes>
            0 -1 89 -9.0635225176811218e-02</internalNodes>
          <leafValues>
            -8.6569607257843018e-01 1.2727372348308563e-01</leafValues></_>
        <_>
          <internalNodes>
            0 -1 131 -6.9482279941439629e-03</internalNodes>
          <leafValues>
            9.1009217500686646e-01 -1.4223022758960724e-01</leafValues></_>
        <_>
          <internalNodes>
            0 -1 186 -2.1762098185718060e-03</internalNodes>
          <leafValues>
            5.8562833070755005e-01 -1.5610240399837494e-01</leafValues></_>
        <_>
          <internalNodes>
            0 -1 37 1.1029000580310822e-01</internalNodes>
          <leafValues>
            1.2152329087257385e-01 -8.9109963178634644e-01</leafValues></_></weakClassifiers></_>
    <!-- stage 17 -->
    <_>
      <maxWeakCount>9</maxWeakCount>
      <stageThreshold>-1.2622526884078979e+00</stageThreshold>
      <weakClassifiers>
        <_>
          <internalNodes>
            0 -1 137 -5.5917669087648392e-03</internalNodes>
          <leafValues>
            1. -7.0028275251388550e-01</leafValues></_>
        <_>
          <internalNodes>
            0 -1 113 -5.2621118724346161e-02</internalNodes>
          <leafValues>
            -8.8457864522933960e-01 -6.3894302584230900e-03</leafValues></_>
        <_>
          <internalNodes>
            0 -1 36 -6.9357492029666901e-03</internalNodes>
          <leafValues>
            4.2053326964378357e-01 -2.8785550594329834e-01</leafValues></_>
        <_>
          <internalNodes>
            0 -1 119 4.7145914286375046e-03</internalNodes>
          <leafValues>
            -1.6196396946907043e-01 7.5484138727188110e-01</leafValues></_>
        <_>
          <internalNodes>
            0 -1 114 5.9389840316725895e-05</internalNodes>
          <leafValues>
            -3.3061057329177856e-01 4.8489317297935486e-01</leafValues></_>
        <_>
          <internalNodes>
            0 -1 73 -4.9104478210210800e-02</internalNodes>
          <leafValues>
            4.2598524689674377e-01 -3.4928661584854126e-01</leafValues></_>
        <_>
          <internalNodes>
            0 -1 155 -7.8972736373543739e-03</internalNodes>
          <leafValues>
            6.0667884349822998e-01 -2.5105997920036316e-01</leafValues></_>
        <_>
          <internalNodes>
            0 -1 166 -2.8538615442812443e-03</internalNodes>
          <leafValues>
            6.4875316619873047e-01 -2.6915842294692993e-01</leafValues></_>
        <_>
          <internalNodes>
            0 -1 147 9.6968468278646469e-04</internalNodes>
          <leafValues>
            3.3963680267333984e-01 -4.7177302837371826e-01</leafValues></_></weakClassifiers></_>
    <!-- stage 18 -->
    <_>
      <maxWeakCount>7</maxWeakCount>
      <stageThreshold>-1.0260602235794067e+00</stageThreshold>
      <weakClassifiers>
        <_>
          <internalNodes>
            0 -1 103 4.5840285718441010e-02</internalNodes>
          <leafValues>
            -7.5657254457473755e-01 1.</leafValues></_>
        <_>
          <internalNodes>
            0 -1 184 -5.2055590786039829e-03</internalNodes>
          <leafValues>
            1. -4.1561120748519897e-01</leafValues></_>
        <_>
          <internalNodes>
            0 -1 158 5.4750237613916397e-03</internalNodes>
          <leafValues>
            -1.7429995536804199e-01 8.7403488159179688e-01</leafValues></_>
        <_>
          <internalNodes>
            0 -1 140 3.4380555152893066e-02</internalNodes>
          <leafValues>
            3.4631907939910889e-01 -6.3456624746322632e-01</leafValues></_>
        <_>
          <internalNodes>
            0 -1 93 -4.1024303063750267e-03</internalNodes>
          <leafValues>
            -4.4771537184715271e-01 5.5210059881210327e-01</leafValues></_>
        <_>
          <internalNodes>
            0 -1 165 -9.8704989068210125e-04</internalNodes>
          <leafValues>
            7.6057010889053345e-01 -2.5839191675186157e-01</leafValues></_>
        <_>
          <internalNodes>
            0 -1 145 1.3328809291124344e-03</internalNodes>
          <leafValues>
            -3.1960427761077881e-01 7.9101371765136719e-01</leafValues></_></weakClassifiers></_></stages>
  <features>
    <_>
      <rects>
        <_>
          0 0 1 2 -1.</_>
        <_>
          0 1 1 1 2.</_></rects>
      <tilted>0</tilted></_>
    <_>
      <rects>
        <_>
          0 0 1 4 -1.</_>
        <_>
          0 2 1 2 2.</_></rects>
      <tilted>0</tilted></_>
    <_>
      <rects>
        <_>
          0 0 3 6 -1.</_>
        <_>
          0 2 3 2 3.</_></rects>
      <tilted>0</tilted></_>
    <_>
      <rects>
        <_>
          0 0 8 6 -1.</_>
        <_>
          4 0 4 6 2.</_></rects>
      <tilted>0</tilted></_>
    <_>
      <rects>
        <_>
          0 0 16 4 -1.</_>
        <_>
          8 0 8 4 2.</_></rects>
      <tilted>0</tilted></_>
    <_>
      <rects>
        <_>
          0 1 3 3 -1.</_>
        <_>
          1 1 1 3 3.</_></rects>
      <tilted>0</tilted></_>
    <_>
      <rects>
        <_>
          0 2 3 1 -1.</_>
        <_>
          1 2 1 1 3.</_></rects>
      <tilted>0</tilted></_>
    <_>
      <rects>
        <_>
          0 2 2 2 -1.</_>
        <_>
          0 2 1 1 2.</_>
        <_>
          1 3 1 1 2.</_></rects>
      <tilted>0</tilted></_>
    <_>
      <rects>
        <_>
          0 2 2 6 -1.</_>
        <_>
          0 2 1 3 2.</_>
        <_>
          1 5 1 3 2.</_></rects>
      <tilted>0</tilted></_>
    <_>
      <rects>
        <_>
          0 2 4 4 -1.</_>
        <_>
          1 2 2 4 2.</_></rects>
      <tilted>0</tilted></_>
    <_>
      <rects>
        <_>
          0 3 2 4 -1.</_>
        <_>
          0 3 1 2 2.</_>
        <_>
          1 5 1 2 2.</_></rects>
      <tilted>0</tilted></_>
    <_>
      <rects>
        <_>
          0 3 8 8 -1.</_>
        <_>
          2 3 4 8 2.</_></rects>
      <tilted>0</tilted></_>
    <_>
      <rects>
        <_>
          0 3 6 6 -1.</_>
        <_>
          3 3 3 6 2.</_></rects>
      <tilted>0</tilted></_>
    <_>
      <rects>
        <_>
          0 4 6 4 -1.</_>
        <_>
          2 4 2 4 3.</_></rects>
      <tilted>0</tilted></_>
    <_>
      <rects>
        <_>
          0 4 4 3 -1.</_>
        <_>
          0 5 4 1 3.</_></rects>
      <tilted>0</tilted></_>
    <_>
      <rects>
        <_>
          0 4 14 3 -1.</_>
        <_>
          7 4 7 3 2.</_></rects>
      <tilted>0</tilted></_>
    <_>
      <rects>
        <_>
          0 5 1 6 -1.</_>
        <_>
          0 8 1 3 2.</_></rects>
      <tilted>0</tilted></_>
    <_>
      <rects>
        <_>
          0 5 12 4 -1.</_>
        <_>
          4 5 4 4 3.</_></rects>
      <tilted>0</tilted></_>
    <_>
      <rects>
        <_>
          0 6 10 4 -1.</_>
        <_>
          0 6 5 2 2.</_>
        <_>
          5 8 5 2 2.</_></rects>
      <tilted>0</tilted></_>
    <_>
      <rects>
        <_>
          0 6 14 3 -1.</_>
        <_>
          7 6 7 3 2.</_></rects>
      <tilted>0</tilted></_>
    <_>
      <rects>
        <_>
          0 8 2 3 -1.</_>
        <_>
          1 8 1 3 2.</_></rects>
      <tilted>0</tilted></_>
    <_>
      <rects>
        <_>
          0 8 2 4 -1.</_>
        <_>
          0 9 2 2 2.</_></rects>
      <tilted>0</tilted></_>
    <_>
      <rects>
        <_>
          0 9 2 3 -1.</_>
        <_>
          1 9 1 3 2.</_></rects>
      <tilted>0</tilted></_>
    <_>
      <rects>
        <_>
          0 9 16 3 -1.</_>
        <_>
          8 9 8 3 2.</_></rects>
      <tilted>0</tilted></_>
    <_>
      <rects>
        <_>
          0 10 1 2 -1.</_>
        <_>
          0 11 1 1 2.</_></rects>
      <tilted>0</tilted></_>
    <_>
      <rects>
        <_>
          0 10 16 2 -1.</_>
        <_>
          8 10 8 2 2.</_></rects>
      <tilted>0</tilted></_>
    <_>
      <rects>
        <_>
          0 11 14 1 -1.</_>
        <_>
          7 11 7 1 2.</_></rects>
      <tilted>0</tilted></_>
    <_>
      <rects>
        <_>
          1 0 2 8 -1.</_>
        <_>
          1 0 1 4 2.</_>
        <_>
          2 4 1 4 2.</_></rects>
      <tilted>0</tilted></_>
    <_>
      <rects>
        <_>
          1 1 2 2 -1.</_>
        <_>
          2 1 1 2 2.</_></rects>
      <tilted>0</tilted></_>
    <_>
      <rects>
        <_>
          1 1 2 10 -1.</_>
        <_>
          1 6 2 5 2.</_></rects>
      <tilted>0</tilted></_>
    <_>
      <rects>
        <_>
          1 1 8 4 -1.</_>
        <_>
          5 1 4 4 2.</_></rects>
      <tilted>0</tilted></_>
    <_>
      <rects>
        <_>
          1 1 10 4 -1.</_>
        <_>
          1 1 5 2 2.</_>
        <_>
          6 3 5 2 2.</_></rects>
      <tilted>0</tilted></_>
    <_>
      <rects>
        <_>
          1 3 2 4 -1.</_>
        <_>
          1 3 1 2 2.</_>
        <_>
          2 5 1 2 2.</_></rects>
      <tilted>0</tilted></_>
    <_>
      <rects>
        <_>
          1 4 2 5 -1.</_>
        <_>
          2 4 1 5 2.</_></rects>
      <tilted>0</tilted></_>
    <_>
      <rects>
        <_>
          1 4 12 5 -1.</_>
        <_>
          7 4 6 5 2.</_></rects>
      <tilted>0</tilted></_>
    <_>
      <rects>
        <_>
          1 6 15 1 -1.</_>
        <_>
          6 6 5 1 3.</_></rects>
      <tilted>0</tilted></_>
    <_>
      <rects>
        <_>
          1 7 4 4 -1.</_>
        <_>
          1 8 4 2 2.</_></rects>
      <tilted>0</tilted></_>
    <_>
      <rects>
        <_>
          1 9 15 2 -1.</_>
        <_>
          1 10 15 1 2.</_></rects>
      <tilted>0</tilted></_>
    <_>
      <rects>
        <_>
          2 0 11 6 -1.</_>
        <_>
          2 3 11 3 2.</_></rects>
      <tilted>0</tilted></_>
    <_>
      <rects>
        <_>
          2 1 6 2 -1.</_>
        <_>
          2 1 3 1 2.</_>
        <_>
          5 2 3 1 2.</_></rects>
      <tilted>0</tilted></_>
    <_>
      <rects>
        <_>
          2 1 8 2 -1.</_>
        <_>
          2 1 4 1 2.</_>
        <_>
          6 2 4 1 2.</_></rects>
      <tilted>0</tilted></_>
    <_>
      <rects>
        <_>
          2 2 6 2 -1.</_>
        <_>
          2 2 3 1 2.</_>
        <_>
          5 3 3 1 2.</_></rects>
      <tilted>0</tilted></_>
    <_>
      <rects>
        <_>
          2 4 4 4 -1.</_>
        <_>
          4 4 2 4 2.</_></rects>
      <tilted>0</tilted></_>
    <_>
      <rects>
        <_>
          2 4 10 5 -1.</_>
        <_>
          7 4 5 5 2.</_></rects>
      <tilted>0</tilted></_>
    <_>
      <rects>
        <_>
          2 5 12 5 -1.</_>
        <_>
          6 5 4 5 3.</_></rects>
      <tilted>0</tilted></_>
    <_>
      <rects>
        <_>
          2 5 9 4 -1.</_>
        <_>
          2 7 9 2 2.</_></rects>
      <tilted>0</tilted></_>
    <_>
      <rects>
        <_>
          2 6 14 6 -1.</_>
        <_>
          2 6 7 3 2.</_>
        <_>
          9 9 7 3 2.</_></rects>
      <tilted>0</tilted></_>
    <_>
      <rects>
        <_>
          2 8 4 4 -1.</_>
        <_>
          3 8 2 4 2.</_></rects>
      <tilted>0</tilted></_>
    <_>
      <rects>
        <_>
          2 11 6 1 -1.</_>
        <_>
          4 11 2 1 3.</_></rects>
      <tilted>0</tilted></_>
    <_>
      <rects>
        <_>
          3 0 4 12 -1.</_>
        <_>
          5 0 2 12 2.</_></rects>
      <tilted>0</tilted></_>
    <_>
      <rects>
        <_>
          3 1 8 2 -1.</_>
        <_>
          3 1 4 1 2.</_>
        <_>
          7 2 4 1 2.</_></rects>
      <tilted>0</tilted></_>
    <_>
      <rects>
        <_>
          3 1 12 9 -1.</_>
        <_>
          7 4 4 3 9.</_></rects>
      <tilted>0</tilted></_>
    <_>
      <rects>
        <_>
          3 2 2 6 -1.</_>
        <_>
          3 2 1 3 2.</_>
        <_>
          4 5 1 3 2.</_></rects>
      <tilted>0</tilted></_>
    <_>
      <rects>
        <_>
          3 2 8 4 -1.</_>
        <_>
          3 2 4 2 2.</_>
        <_>
          7 4 4 2 2.</_></rects>
      <tilted>0</tilted></_>
    <_>
      <rects>
        <_>
          3 2 12 8 -1.</_>
        <_>
          9 2 6 8 2.</_></rects>
      <tilted>0</tilted></_>
    <_>
      <rects>
        <_>
          3 4 6 1 -1.</_>
        <_>
          5 4 2 1 3.</_></rects>
      <tilted>0</tilted></_>
    <_>
      <rects>
        <_>
          3 4 4 2 -1.</_>
        <_>
          3 4 2 1 2.</_>
        <_>
          5 5 2 1 2.</_></rects>
      <tilted>0</tilted></_>
    <_>
      <rects>
        <_>
          3 4 12 1 -1.</_>
        <_>
          7 4 4 1 3.</_></rects>
      <tilted>0</tilted></_>
    <_>
      <rects>
        <_>
          3 4 6 8 -1.</_>
        <_>
          3 6 6 4 2.</_></rects>
      <tilted>0</tilted></_>
    <_>
      <rects>
        <_>
          3 4 12 3 -1.</_>
        <_>
          9 4 6 3 2.</_></rects>
      <tilted>0</tilted></_>
    <_>
      <rects>
        <_>
          3 5 4 6 -1.</_>
        <_>
          5 5 2 6 2.</_></rects>
      <tilted>0</tilted></_>
    <_>
      <rects>
        <_>
          3 8 6 2 -1.</_>
        <_>
          3 8 3 1 2.</_>
        <_>
          6 9 3 1 2.</_></rects>
      <tilted>0</tilted></_>
    <_>
      <rects>
        <_>
          3 8 8 2 -1.</_>
        <_>
          3 8 4 1 2.</_>
        <_>
          7 9 4 1 2.</_></rects>
      <tilted>0</tilted></_>
    <_>
      <rects>
        <_>
          3 9 4 2 -1.</_>
        <_>
          3 9 2 1 2.</_>
        <_>
          5 10 2 1 2.</_></rects>
      <tilted>0</tilted></_>
    <_>
      <rects>
        <_>
          3 9 8 3 -1.</_>
        <_>
          5 9 4 3 2.</_></rects>
      <tilted>0</tilted></_>
    <_>
      <rects>
        <_>
          4 0 2 1 -1.</_>
        <_>
          4 0 1 1 2.</_></rects>
      <tilted>1</tilted></_>
    <_>
      <rects>
        <_>
          4 0 8 7 -1.</_>
        <_>
          6 0 4 7 2.</_></rects>
      <tilted>0</tilted></_>
    <_>
      <rects>
        <_>
          4 1 2 1 -1.</_>
        <_>
          5 1 1 1 2.</_></rects>
      <tilted>0</tilted></_>
    <_>
      <rects>
        <_>
          4 1 1 4 -1.</_>
        <_>
          4 1 1 2 2.</_></rects>
      <tilted>1</tilted></_>
    <_>
      <rects>
        <_>
          4 1 2 9 -1.</_>
        <_>
          5 1 1 9 2.</_></rects>
      <tilted>0</tilted></_>
    <_>
      <rects>
        <_>
          4 1 6 10 -1.</_>
        <_>
          7 1 3 10 2.</_></rects>
      <tilted>0</tilted></_>
    <_>
      <rects>
        <_>
          4 3 9 3 -1.</_>
        <_>
          7 4 3 1 9.</_></rects>
      <tilted>0</tilted></_>
    <_>
      <rects>
        <_>
          4 4 11 6 -1.</_>
        <_>
          4 7 11 3 2.</_></rects>
      <tilted>0</tilted></_>
    <_>
      <rects>
        <_>
          4 5 9 3 -1.</_>
        <_>
          7 5 3 3 3.</_></rects>
      <tilted>0</tilted></_>
    <_>
      <rects>
        <_>
          4 6 6 3 -1.</_>
        <_>
          6 7 2 1 9.</_></rects>
      <tilted>0</tilted></_>
    <_>
      <rects>
        <_>
          4 8 3 3 -1.</_>
        <_>
          5 9 1 1 9.</_></rects>
      <tilted>0</tilted></_>
    <_>
      <rects>
        <_>
          4 8 6 4 -1.</_>
        <_>
          6 8 2 4 3.</_></rects>
      <tilted>0</tilted></_>
    <_>
      <rects>
        <_>
          4 10 3 1 -1.</_>
        <_>
          5 10 1 1 3.</_></rects>
      <tilted>0</tilted></_>
    <_>
      <rects>
        <_>
          4 11 2 1 -1.</_>
        <_>
          5 11 1 1 2.</_></rects>
      <tilted>0</tilted></_>
    <_>
      <rects>
        <_>
          4 11 4 1 -1.</_>
        <_>
          5 11 2 1 2.</_></rects>
      <tilted>0</tilted></_>
    <_>
      <rects>
        <_>
          5 1 5 4 -1.</_>
        <_>
          5 3 5 2 2.</_></rects>
      <tilted>0</tilted></_>
    <_>
      <rects>
        <_>
          5 2 3 3 -1.</_>
        <_>
          6 3 1 1 9.</_></rects>
      <tilted>0</tilted></_>
    <_>
      <rects>
        <_>
          5 3 6 2 -1.</_>
        <_>
          5 3 3 1 2.</_>
        <_>
          8 4 3 1 2.</_></rects>
      <tilted>0</tilted></_>
    <_>
      <rects>
        <_>
          5 3 8 2 -1.</_>
        <_>
          5 3 4 1 2.</_>
        <_>
          9 4 4 1 2.</_></rects>
      <tilted>0</tilted></_>
    <_>
      <rects>
        <_>
          5 4 2 1 -1.</_>
        <_>
          5 4 1 1 2.</_></rects>
      <tilted>1</tilted></_>
    <_>
      <rects>
        <_>
          5 4 3 5 -1.</_>
        <_>
          6 4 1 5 3.</_></rects>
      <tilted>0</tilted></_>
    <_>
      <rects>
        <_>
          5 4 8 1 -1.</_>
        <_>
          7 4 4 1 2.</_></rects>
      <tilted>0</tilted></_>
    <_>
      <rects>
        <_>
          5 4 6 4 -1.</_>
        <_>
          5 4 3 2 2.</_>
        <_>
          8 6 3 2 2.</_></rects>
      <tilted>0</tilted></_>
    <_>
      <rects>
        <_>
          5 5 3 1 -1.</_>
        <_>
          6 5 1 1 3.</_></rects>
      <tilted>0</tilted></_>
    <_>
      <rects>
        <_>
          5 5 6 3 -1.</_>
        <_>
          7 5 2 3 3.</_></rects>
      <tilted>0</tilted></_>
    <_>
      <rects>
        <_>
          5 5 10 4 -1.</_>
        <_>
          10 5 5 4 2.</_></rects>
      <tilted>0</tilted></_>
    <_>
      <rects>
        <_>
          5 6 11 3 -1.</_>
        <_>
          5 7 11 1 3.</_></rects>
      <tilted>0</tilted></_>
    <_>
      <rects>
        <_>
          5 8 4 4 -1.</_>
        <_>
          7 8 2 4 2.</_></rects>
      <tilted>0</tilted></_>
    <_>
      <rects>
        <_>
          5 10 8 1 -1.</_>
        <_>
          7 10 4 1 2.</_></rects>
      <tilted>0</tilted></_>
    <_>
      <rects>
        <_>
          6 0 4 2 -1.</_>
        <_>
          6 0 2 1 2.</_>
        <_>
          8 1 2 1 2.</_></rects>
      <tilted>0</tilted></_>
    <_>
      <rects>
        <_>
          6 1 10 11 -1.</_>
        <_>
          11 1 5 11 2.</_></rects>
      <tilted>0</tilted></_>
    <_>
      <rects>
        <_>
          6 2 2 2 -1.</_>
        <_>
          6 2 1 1 2.</_>
        <_>
          7 3 1 1 2.</_></rects>
      <tilted>0</tilted></_>
    <_>
      <rects>
        <_>
          6 2 3 3 -1.</_>
        <_>
          7 3 1 1 9.</_></rects>
      <tilted>0</tilted></_>
    <_>
      <rects>
        <_>
          6 2 4 2 -1.</_>
        <_>
          6 2 2 1 2.</_>
        <_>
          8 3 2 1 2.</_></rects>
      <tilted>0</tilted></_>
    <_>
      <rects>
        <_>
          6 2 6 2 -1.</_>
        <_>
          6 2 3 1 2.</_>
        <_>
          9 3 3 1 2.</_></rects>
      <tilted>0</tilted></_>
    <_>
      <rects>
        <_>
          6 2 8 2 -1.</_>
        <_>
          6 2 4 1 2.</_>
        <_>
          10 3 4 1 2.</_></rects>
      <tilted>0</tilted></_>
    <_>
      <rects>
        <_>
          6 3 3 1 -1.</_>
        <_>
          7 3 1 1 3.</_></rects>
      <tilted>0</tilted></_>
    <_>
      <rects>
        <_>
          6 3 4 2 -1.</_>
        <_>
          6 3 2 1 2.</_>
        <_>
          8 4 2 1 2.</_></rects>
      <tilted>0</tilted></_>
    <_>
      <rects>
        <_>
          6 3 10 4 -1.</_>
        <_>
          6 3 5 2 2.</_>
        <_>
          11 5 5 2 2.</_></rects>
      <tilted>0</tilted></_>
    <_>
      <rects>
        <_>
          6 3 9 2 -1.</_>
        <_>
          6 4 9 1 2.</_></rects>
      <tilted>0</tilted></_>
    <_>
      <rects>
        <_>
          6 4 3 3 -1.</_>
        <_>
          6 5 3 1 3.</_></rects>
      <tilted>0</tilted></_>
    <_>
      <rects>
        <_>
          6 5 2 3 -1.</_>
        <_>
          5 6 2 1 3.</_></rects>
      <tilted>1</tilted></_>
    <_>
      <rects>
        <_>
          6 10 10 2 -1.</_>
        <_>
          6 10 5 1 2.</_>
        <_>
          11 11 5 1 2.</_></rects>
      <tilted>0</tilted></_>
    <_>
      <rects>
        <_>
          6 11 2 1 -1.</_>
        <_>
          7 11 1 1 2.</_></rects>
      <tilted>0</tilted></_>
    <_>
      <rects>
        <_>
          6 11 3 1 -1.</_>
        <_>
          7 11 1 1 3.</_></rects>
      <tilted>0</tilted></_>
    <_>
      <rects>
        <_>
          7 0 1 8 -1.</_>
        <_>
          7 4 1 4 2.</_></rects>
      <tilted>0</tilted></_>
    <_>
      <rects>
        <_>
          7 0 8 1 -1.</_>
        <_>
          9 0 4 1 2.</_></rects>
      <tilted>0</tilted></_>
    <_>
      <rects>
        <_>
          7 1 1 3 -1.</_>
        <_>
          7 2 1 1 3.</_></rects>
      <tilted>0</tilted></_>
    <_>
      <rects>
        <_>
          7 1 4 9 -1.</_>
        <_>
          8 1 2 9 2.</_></rects>
      <tilted>0</tilted></_>
    <_>
      <rects>
        <_>
          7 2 2 2 -1.</_>
        <_>
          7 2 1 1 2.</_>
        <_>
          8 3 1 1 2.</_></rects>
      <tilted>0</tilted></_>
    <_>
      <rects>
        <_>
          7 2 2 4 -1.</_>
        <_>
          7 3 2 2 2.</_></rects>
      <tilted>0</tilted></_>
    <_>
      <rects>
        <_>
          7 2 6 4 -1.</_>
        <_>
          7 2 3 2 2.</_>
        <_>
          10 4 3 2 2.</_></rects>
      <tilted>0</tilted></_>
    <_>
      <rects>
        <_>
          7 3 2 2 -1.</_>
        <_>
          7 3 1 1 2.</_>
        <_>
          8 4 1 1 2.</_></rects>
      <tilted>0</tilted></_>
    <_>
      <rects>
        <_>
          7 3 8 2 -1.</_>
        <_>
          7 3 4 1 2.</_>
        <_>
          11 4 4 1 2.</_></rects>
      <tilted>0</tilted></_>
    <_>
      <rects>
        <_>
          7 4 2 2 -1.</_>
        <_>
          7 4 1 1 2.</_>
        <_>
          8 5 1 1 2.</_></rects>
      <tilted>0</tilted></_>
    <_>
      <rects>
        <_>
          7 5 2 2 -1.</_>
        <_>
          7 5 1 1 2.</_>
        <_>
          8 6 1 1 2.</_></rects>
      <tilted>0</tilted></_>
    <_>
      <rects>
        <_>
          7 5 3 3 -1.</_>
        <_>
          8 6 1 3 3.</_></rects>
      <tilted>1</tilted></_>
    <_>
      <rects>
        <_>
          7 5 4 7 -1.</_>
        <_>
          8 5 2 7 2.</_></rects>
      <tilted>0</tilted></_>
    <_>
      <rects>
        <_>
          7 5 6 1 -1.</_>
        <_>
          9 5 2 1 3.</_></rects>
      <tilted>0</tilted></_>
    <_>
      <rects>
        <_>
          8 0 2 4 -1.</_>
        <_>
          7 1 2 2 2.</_></rects>
      <tilted>1</tilted></_>
    <_>
      <rects>
        <_>
          8 0 6 6 -1.</_>
        <_>
          10 2 2 6 3.</_></rects>
      <tilted>1</tilted></_>
    <_>
      <rects>
        <_>
          8 1 7 8 -1.</_>
        <_>
          8 3 7 4 2.</_></rects>
      <tilted>0</tilted></_>
    <_>
      <rects>
        <_>
          8 2 7 8 -1.</_>
        <_>
          8 6 7 4 2.</_></rects>
      <tilted>0</tilted></_>
    <_>
      <rects>
        <_>
          8 3 1 3 -1.</_>
        <_>
          8 4 1 1 3.</_></rects>
      <tilted>0</tilted></_>
    <_>
      <rects>
        <_>
          8 3 8 8 -1.</_>
        <_>
          8 7 8 4 2.</_></rects>
      <tilted>0</tilted></_>
    <_>
      <rects>
        <_>
          8 4 2 2 -1.</_>
        <_>
          8 4 1 1 2.</_>
        <_>
          9 5 1 1 2.</_></rects>
      <tilted>0</tilted></_>
    <_>
      <rects>
        <_>
          8 7 2 2 -1.</_>
        <_>
          8 7 1 1 2.</_>
        <_>
          9 8 1 1 2.</_></rects>
      <tilted>0</tilted></_>
    <_>
      <rects>
        <_>
          9 0 1 12 -1.</_>
        <_>
          9 6 1 6 2.</_></rects>
      <tilted>0</tilted></_>
    <_>
      <rects>
        <_>
          9 0 3 12 -1.</_>
        <_>
          9 6 3 6 2.</_></rects>
      <tilted>0</tilted></_>
    <_>
      <rects>
        <_>
          9 0 4 12 -1.</_>
        <_>
          9 6 4 6 2.</_></rects>
      <tilted>0</tilted></_>
    <_>
      <rects>
        <_>
          9 1 3 1 -1.</_>
        <_>
          10 1 1 1 3.</_></rects>
      <tilted>0</tilted></_>
    <_>
      <rects>
        <_>
          9 1 7 6 -1.</_>
        <_>
          9 3 7 2 3.</_></rects>
      <tilted>0</tilted></_>
    <_>
      <rects>
        <_>
          9 2 2 2 -1.</_>
        <_>
          9 2 1 1 2.</_>
        <_>
          10 3 1 1 2.</_></rects>
      <tilted>0</tilted></_>
    <_>
      <rects>
        <_>
          9 2 3 4 -1.</_>
        <_>
          10 2 1 4 3.</_></rects>
      <tilted>0</tilted></_>
    <_>
      <rects>
        <_>
          9 2 7 10 -1.</_>
        <_>
          9 7 7 5 2.</_></rects>
      <tilted>0</tilted></_>
    <_>
      <rects>
        <_>
          9 3 3 2 -1.</_>
        <_>
          9 3 3 1 2.</_></rects>
      <tilted>1</tilted></_>
    <_>
      <rects>
        <_>
          9 3 5 4 -1.</_>
        <_>
          9 3 5 2 2.</_></rects>
      <tilted>1</tilted></_>
    <_>
      <rects>
        <_>
          9 4 1 3 -1.</_>
        <_>
          9 5 1 1 3.</_></rects>
      <tilted>0</tilted></_>
    <_>
      <rects>
        <_>
          9 5 2 2 -1.</_>
        <_>
          9 5 1 1 2.</_>
        <_>
          10 6 1 1 2.</_></rects>
      <tilted>0</tilted></_>
    <_>
      <rects>
        <_>
          9 5 6 6 -1.</_>
        <_>
          11 5 2 6 3.</_></rects>
      <tilted>0</tilted></_>
    <_>
      <rects>
        <_>
          9 6 1 4 -1.</_>
        <_>
          8 7 1 2 2.</_></rects>
      <tilted>1</tilted></_>
    <_>
      <rects>
        <_>
          9 7 2 2 -1.</_>
        <_>
          9 8 2 1 2.</_></rects>
      <tilted>0</tilted></_>
    <_>
      <rects>
        <_>
          10 0 4 1 -1.</_>
        <_>
          11 0 2 1 2.</_></rects>
      <tilted>0</tilted></_>
    <_>
      <rects>
        <_>
          10 0 6 2 -1.</_>
        <_>
          12 0 2 2 3.</_></rects>
      <tilted>0</tilted></_>
    <_>
      <rects>
        <_>
          10 0 6 1 -1.</_>
        <_>
          10 0 3 1 2.</_></rects>
      <tilted>1</tilted></_>
    <_>
      <rects>
        <_>
          10 0 3 4 -1.</_>
        <_>
          10 2 3 2 2.</_></rects>
      <tilted>0</tilted></_>
    <_>
      <rects>
        <_>
          10 3 2 6 -1.</_>
        <_>
          8 5 2 2 3.</_></rects>
      <tilted>1</tilted></_>
    <_>
      <rects>
        <_>
          10 4 3 1 -1.</_>
        <_>
          11 4 1 1 3.</_></rects>
      <tilted>0</tilted></_>
    <_>
      <rects>
        <_>
          10 4 3 3 -1.</_>
        <_>
          11 4 1 3 3.</_></rects>
      <tilted>0</tilted></_>
    <_>
      <rects>
        <_>
          10 6 2 2 -1.</_>
        <_>
          10 6 1 1 2.</_>
        <_>
          11 7 1 1 2.</_></rects>
      <tilted>0</tilted></_>
    <_>
      <rects>
        <_>
          10 6 1 6 -1.</_>
        <_>
          10 8 1 2 3.</_></rects>
      <tilted>0</tilted></_>
    <_>
      <rects>
        <_>
          11 0 4 6 -1.</_>
        <_>
          11 3 4 3 2.</_></rects>
      <tilted>0</tilted></_>
    <_>
      <rects>
        <_>
          11 2 3 1 -1.</_>
        <_>
          12 2 1 1 3.</_></rects>
      <tilted>0</tilted></_>
    <_>
      <rects>
        <_>
          11 2 4 4 -1.</_>
        <_>
          11 2 2 2 2.</_>
        <_>
          13 4 2 2 2.</_></rects>
      <tilted>0</tilted></_>
    <_>
      <rects>
        <_>
          11 2 4 5 -1.</_>
        <_>
          13 2 2 5 2.</_></rects>
      <tilted>0</tilted></_>
    <_>
      <rects>
        <_>
          11 4 2 4 -1.</_>
        <_>
          11 4 1 2 2.</_>
        <_>
          12 6 1 2 2.</_></rects>
      <tilted>0</tilted></_>
    <_>
      <rects>
        <_>
          11 11 4 1 -1.</_>
        <_>
          13 11 2 1 2.</_></rects>
      <tilted>0</tilted></_>
    <_>
      <rects>
        <_>
          12 0 3 12 -1.</_>
        <_>
          12 3 3 6 2.</_></rects>
      <tilted>0</tilted></_>
    <_>
      <rects>
        <_>
          12 1 4 6 -1.</_>
        <_>
          12 1 4 3 2.</_></rects>
      <tilted>1</tilted></_>
    <_>
      <rects>
        <_>
          12 2 4 9 -1.</_>
        <_>
          12 5 4 3 3.</_></rects>
      <tilted>0</tilted></_>
    <_>
      <rects>
        <_>
          12 6 2 2 -1.</_>
        <_>
          12 6 1 1 2.</_>
        <_>
          13 7 1 1 2.</_></rects>
      <tilted>0</tilted></_>
    <_>
      <rects>
        <_>
          12 6 4 5 -1.</_>
        <_>
          14 6 2 5 2.</_></rects>
      <tilted>0</tilted></_>
    <_>
      <rects>
        <_>
          12 7 4 4 -1.</_>
        <_>
          12 7 2 2 2.</_>
        <_>
          14 9 2 2 2.</_></rects>
      <tilted>0</tilted></_>
    <_>
      <rects>
        <_>
          12 8 2 2 -1.</_>
        <_>
          12 8 1 1 2.</_>
        <_>
          13 9 1 1 2.</_></rects>
      <tilted>0</tilted></_>
    <_>
      <rects>
        <_>
          12 11 4 1 -1.</_>
        <_>
          13 11 2 1 2.</_></rects>
      <tilted>0</tilted></_>
    <_>
      <rects>
        <_>
          13 0 2 6 -1.</_>
        <_>
          13 3 2 3 2.</_></rects>
      <tilted>0</tilted></_>
    <_>
      <rects>
        <_>
          13 0 3 12 -1.</_>
        <_>
          13 4 3 4 3.</_></rects>
      <tilted>0</tilted></_>
    <_>
      <rects>
        <_>
          13 1 3 3 -1.</_>
        <_>
          13 2 3 1 3.</_></rects>
      <tilted>0</tilted></_>
    <_>
      <rects>
        <_>
          13 2 3 1 -1.</_>
        <_>
          14 2 1 1 3.</_></rects>
      <tilted>0</tilted></_>
    <_>
      <rects>
        <_>
          13 2 3 6 -1.</_>
        <_>
          13 2 3 3 2.</_></rects>
      <tilted>1</tilted></_>
    <_>
      <rects>
        <_>
          13 4 3 4 -1.</_>
        <_>
          13 4 3 2 2.</_></rects>
      <tilted>1</tilted></_>
    <_>
      <rects>
        <_>
          13 8 2 2 -1.</_>
        <_>
          13 8 1 1 2.</_>
        <_>
          14 9 1 1 2.</_></rects>
      <tilted>0</tilted></_>
    <_>
      <rects>
        <_>
          13 9 3 1 -1.</_>
        <_>
          14 9 1 1 3.</_></rects>
      <tilted>0</tilted></_>
    <_>
      <rects>
        <_>
          14 0 2 1 -1.</_>
        <_>
          15 0 1 1 2.</_></rects>
      <tilted>0</tilted></_>
    <_>
      <rects>
        <_>
          14 1 1 9 -1.</_>
        <_>
          14 4 1 3 3.</_></rects>
      <tilted>0</tilted></_>
    <_>
      <rects>
        <_>
          14 1 2 4 -1.</_>
        <_>
          14 2 2 2 2.</_></rects>
      <tilted>0</tilted></_>
    <_>
      <rects>
        <_>
          14 2 2 2 -1.</_>
        <_>
          14 2 1 1 2.</_>
        <_>
          15 3 1 1 2.</_></rects>
      <tilted>0</tilted></_>
    <_>
      <rects>
        <_>
          14 2 2 2 -1.</_>
        <_>
          15 2 1 2 2.</_></rects>
      <tilted>0</tilted></_>
    <_>
      <rects>
        <_>
          14 2 2 3 -1.</_>
        <_>
          15 2 1 3 2.</_></rects>
      <tilted>0</tilted></_>
    <_>
      <rects>
        <_>
          14 8 2 2 -1.</_>
        <_>
          14 8 1 1 2.</_>
        <_>
          15 9 1 1 2.</_></rects>
      <tilted>0</tilted></_>
    <_>
      <rects>
        <_>
          14 9 2 1 -1.</_>
        <_>
          15 9 1 1 2.</_></rects>
      <tilted>0</tilted></_>
    <_>
      <rects>
        <_>
          14 9 2 2 -1.</_>
        <_>
          14 9 1 1 2.</_>
        <_>
          15 10 1 1 2.</_></rects>
      <tilted>0</tilted></_>
    <_>
      <rects>
        <_>
          15 0 1 12 -1.</_>
        <_>
          15 3 1 6 2.</_></rects>
      <tilted>0</tilted></_>
    <_>
      <rects>
        <_>
          15 2 1 4 -1.</_>
        <_>
          15 3 1 2 2.</_></rects>
      <tilted>0</tilted></_>
    <_>
      <rects>
        <_>
          15 5 1 6 -1.</_>
        <_>
          15 7 1 2 3.</_></rects>
      <tilted>0</tilted></_>
    <_>
      <rects>
        <_>
          15 7 1 3 -1.</_>
        <_>
          15 8 1 1 3.</_></rects>
      <tilted>0</tilted></_>
    <_>
      <rects>
        <_>
          15 9 1 3 -1.</_>
        <_>
          15 10 1 1 3.</_></rects>
      <tilted>0</tilted></_></features></cascade>
</opencv_storage>
