<?xml version="1.0"?>
<opencv_storage>
<stage10>
  <maxWeakCount>6</maxWeakCount>
  <stageThreshold>-1.2157673835754395e+00</stageThreshold>
  <weakClassifiers>
    <_>
      <internalNodes>
        0 -1 4088 2.7507531642913818e-01</internalNodes>
      <leafValues>
        -7.2105997800827026e-01 7.6470589637756348e-01</leafValues></_>
    <_>
      <internalNodes>
        0 -1 7815 8.1833198666572571e-02</internalNodes>
      <leafValues>
        -5.4862672090530396e-01 1.8860943615436554e-01</leafValues></_>
    <_>
      <internalNodes>
        0 -1 791 -1.2739554047584534e-01</internalNodes>
      <leafValues>
        -8.6252015829086304e-01 1.5082252025604248e-01</leafValues></_>
    <_>
      <internalNodes>
        0 -1 11435 -4.2210403829813004e-02</internalNodes>
      <leafValues>
        -6.3068842887878418e-01 2.6178407669067383e-01</leafValues></_>
    <_>
      <internalNodes>
        0 -1 3 7.6680863276124001e-03</internalNodes>
      <leafValues>
        1.3026073575019836e-01 -8.3950257301330566e-01</leafValues></_>
    <_>
      <internalNodes>
        0 -1 6859 1.6097024083137512e-02</internalNodes>
      <leafValues>
        -2.5642091035842896e-01 6.0026097297668457e-01</leafValues></_></weakClassifiers></stage10>
</opencv_storage>
